4.873149658087641001e-01
-2.930585581125342287e-01
-4.283718070473696571e-02
2.290449782449286431e-01
2.275519432077999227e-02
9.549151832288771402e-04
8.019225146199460141e-02
7.536159809205855709e-02
-1.831299457389832241e-01
-1.629352069830929395e-01
6.266024033720896114e-02
-6.201251212041825056e-02
4.129796173492650269e-02
-2.143173973126977216e-01
-1.437786113172023761e-01
4.037781071315293957e-02
-1.645936181357683381e-01
9.436016138897684868e-02
-5.478558809954847675e-03
-1.079442524032856454e-01
2.741886473231716082e-01
1.844611909236846259e-01
-3.595868980178238417e-01
-2.470783221770034288e-02
-3.587694849682065978e-02
2.081376592732908648e-02
3.010866081933727401e-02
2.957129211881692754e-02
2.693520346947479993e-01
-2.261136778251966462e-01
-1.335299357433541445e-01
4.964669416585820727e-02
-1.089870268833692535e-02
4.583571259627206018e-02
2.182254283325164579e-01
-5.062091443130611879e-02
-1.930686478408460971e-02
6.704195647034794092e-02
1.507832527427126479e-01
3.870382465793227311e-01
2.477240701027767500e-01
1.646817614964675158e-01
-5.659261908003827557e-01
2.324175940839268151e-02
4.268529920591390692e-02
-3.918276037948089652e-01
-6.363898716517724097e-02
1.742225996576962643e-02
1.022513741800139542e-01
-2.191331217609331361e-01
-1.751312959095230326e-01
1.220728372045414289e-01
-1.539114963816246018e-01
2.807338276011250855e-02
4.022533276111062150e-02
-1.110285694121557754e-01
6.429262845472294430e-02
-1.374175487424054154e-01
9.139640242210589349e-04
4.581245945664704777e-01
-3.048137166915694252e-01
-1.401760164189909119e-01
-2.514522272613248788e-01
-2.253242824408516753e-01
8.222656935504346620e-02
6.623433445274713449e-01
-2.567474435491021723e-01
-2.751649384936172282e-01
-5.558232176190358587e-01
2.250023335873265751e-01
1.111561055822676281e-01
4.045189448069663740e-02
1.169425029438571073e-01
-4.844690970548981568e-02
4.521387578424764797e-01
4.620143953798105940e-02
-8.028053237899257510e-02
-2.942361072996391158e-02
9.812664235141710378e-03
-2.766880328863408067e-02
-2.204089985789323691e-01
2.094251751441333909e-01
-2.693797625761362724e-02
-1.905898487548256526e-01
-1.258479237023948372e-01
-1.161510268282199831e-01
4.161305875441030366e-01
5.505537220687983790e-02
-3.965167672922120801e-02
-8.690507212557463390e-02
1.537492109710001387e-01
1.557710840461368207e-01
8.878311909575131722e-02
-8.461879356218560133e-03
-7.697118553733162116e-02
1.144214623730022140e-02
4.701317485887557268e-02
-4.878699720720760524e-01
3.149052385330200195e+03
3.402413461008109152e-01
1.014771682606806280e+00
-2.445638132239764673e-01
-2.583713294006884098e-01
3.302987178030889481e-01
-3.149509629249572754e+03
-9.733046116161858663e-02
-6.839545428374549374e-02
-1.400251720951928291e-01
-1.862297166244388791e-01
6.594380015394563088e-02
1.476987592614023015e-01
-1.257135719060897827e-01
-6.628465820540441200e-03
1.603286719637253555e-02
9.353608310630079359e-02
1.654549623435741523e-02
-4.635894690386521688e-02
1.291699594730744138e-01
1.168443013215437531e+00
-1.334832828215439804e-01
3.328669795428140787e-02
-8.068630850175395608e-02
-3.511969734536251053e-01
