1.279476462899765465e+00
5.587167617289878763e-01
-1.144805422782013693e-02
2.305838657461052321e-01
4.467841923548121486e-02
-9.942968521063022536e-03
3.985429398071360652e-02
1.399450163661981605e-01
-2.233850760832325477e-01
-2.302212038148709894e-01
1.379893200468131909e-01
-4.995565313226393300e-01
4.914514388825352853e-02
-3.571020429230316040e-01
-1.191497410952138125e-01
6.088811793861736987e-02
-1.753954726832063216e-01
2.394180066889362024e-02
7.099769644958087156e-02
-9.285731961998067163e-02
4.235651849666766111e-01
-1.524943712678350494e-02
-2.114234427568533192e-01
-1.552627587980381918e-02
-3.615898846184251170e-02
3.870743619767580412e-02
4.771638203040851067e-02
-5.378886207958899490e-03
1.419647345010162098e-01
-2.091423727550392186e-01
-4.967138389064729154e-02
3.195651680564282060e-02
4.053988904584571173e-02
1.747529547559878438e-02
2.373278319105196488e-01
-5.833523287616060315e-02
8.045451003084735930e-03
6.191887551881336549e-02
7.627522421997312563e-02
3.879665474669309333e-01
2.593638548131025345e-01
1.388525881563964504e-01
-5.126202921503590915e-01
-9.738263854933393304e-02
8.372521624787054861e-02
-3.746653348823940632e-01
-4.635219597238915412e-02
-7.500203448032038978e-03
5.970799352229505530e-02
-1.795420871998203438e-01
-1.251213208839772051e-01
1.060781949390445789e-01
-3.231313568209586151e-01
3.064087391995862220e-02
-1.891437453051736384e-02
1.048841574439762780e-02
-1.278722605893634068e-02
-1.176266898578433029e-01
-9.512437173029297810e-02
2.877700645228884468e-01
-1.987877319076858385e-02
-9.313544888868818816e-02
-2.061018985738556353e-01
8.261809052271473774e-02
-2.588559616827978971e-01
7.236033548522300407e-01
-1.153017074489071092e-01
-2.818352783581303811e-01
-6.616508589168006438e-01
1.942735867705494002e-01
1.334379796867040113e-01
2.135155647705389015e-02
1.170406283010834159e-01
-7.445051350805442780e-02
5.913469798065307259e-01
5.785743600162618350e-02
-1.034449970173945133e-01
-2.535211444980944862e-02
1.393344248458561196e-02
-9.623935015422802053e-03
-3.487744668007053406e-01
3.391266047261751737e-01
-3.894588180270375233e-02
-2.195308797786310606e-01
-8.840877832659543856e-02
-9.044532806126426294e-02
4.606148105023066819e-01
6.165880880693919153e-02
-8.543556763813953125e-02
-8.033211659093097978e-02
5.930225074291683995e-02
1.714215680551092191e-01
6.827235366324657662e-02
3.965353821577366489e-03
-5.126989362980793885e-02
6.172522049141093703e-03
1.749367239262511475e-02
-7.929529606153664645e-01
-2.087677730852738023e+01
-6.626148637596998014e-01
7.474371797302410414e-01
-4.748934395694561772e-01
3.837985285179001949e-02
1.931690079874783805e-01
2.053266230795998126e+01
-7.901011649181555185e-02
-1.260491861435752980e-01
1.561063297401688033e-03
9.210480967010425957e-02
7.359023383355633996e-02
-1.467749435194036778e-01
-5.892857983030808100e-01
-1.456932748959616220e-02
-3.058342241803302386e-02
2.191098652401990421e-02
4.495088277707992575e-02
-5.186720895802121589e-02
1.378493895559245175e-01
7.437200910890169325e-01
-9.172641791741398265e-02
3.807289037196426307e-02
2.403660844877375524e-02
-3.622048003530835558e-01
