4.423675132866122794e-02
4.673007890217101279e-03
2.145863164134809153e-02
1.351103088828597976e-01
-6.093515869479082525e-02
-2.351425693696240771e-02
2.003620981552955982e-02
-1.140209584501938878e-02
-2.209599226496106184e-02
-2.022054247188531662e-02
4.097459612821907626e-02
5.439810246565812690e-04
4.257516057688026656e-02
4.160226408203016035e-04
-3.167523575975828010e-02
9.190364111755222609e-03
-5.477393327532409373e-02
4.151443513685038056e-02
5.801450330608126649e-02
-4.056843562157119720e-02
4.148306174826643655e-03
1.745141510900438675e-04
7.783021167639958549e-05
-1.155094889949759285e-02
-3.292114696654424577e-02
3.307333664675216056e-02
3.261987402319760365e-02
1.856452597257529646e-02
1.208320217495872928e-02
-3.556965912942011698e-02
-4.353767737374791835e-02
2.315794294749773385e-02
3.709966212055215706e-03
3.638135063916969614e-03
3.544488511657295504e-02
-3.081153135460157344e-02
-2.488427665956249868e-02
3.501732250757250142e-02
1.421390864858018688e-02
7.076740576954598794e-02
4.976787505514401744e-02
1.030258026326968945e-02
2.928943618386448122e-02
2.447525193444199942e-02
-5.521145706231767036e-02
-7.826380312600544897e-02
-4.470673615001885537e-02
-3.166641198801745105e-02
1.724988470317967426e-02
-5.849494224661455632e-02
2.188671473428449588e-02
1.410405942399908241e-01
-1.501692082228822667e-02
1.685404307166882276e-02
-7.451127773666854637e-03
-6.298372826542220082e-03
2.340359689867455018e-03
8.100312603556147906e-04
5.600468657797286198e-03
2.405235778691006132e-02
2.844339090382508317e-02
2.551837908002241306e-02
-3.163187669310940642e-02
-3.647701035002448577e-03
-7.136833450271495849e-03
3.473665060256792003e-02
-1.287157057182319875e-02
2.347705865186977547e-02
-2.894706904637978084e-02
6.392095177319845334e-02
4.967908308291768549e-02
1.429949187927737064e-02
8.383702944759052755e-02
-4.359102663277791834e-02
-3.650879195873812932e-03
4.862353546528508375e-02
-2.443572007518302058e-02
2.035025218683905734e-02
3.379062799557797092e-02
-1.323568990256026451e-02
-1.105499555419298119e-02
3.910765894001855258e-03
7.839929641940024396e-03
-6.914290622113083984e-02
9.326947480263747536e-03
2.382206780266393764e-02
4.095218831694502626e-02
4.446897953402917381e-02
5.141560651745091803e-03
-4.838038438273661868e-02
5.018018884681740843e-02
8.169833288938699312e-02
2.857000888215921464e-02
-6.943457470909741858e-03
6.977593084878108698e-03
3.499264432505544420e-02
7.220751913522782672e-03
7.048921461317414483e-03
1.773770307071309560e-02
3.654451350979570634e-02
2.605995466098320890e-02
-2.955483551011051091e-03
3.754246522539128605e-02
3.109191591608517768e-02
1.788535833855897650e-02
-2.586492460926415049e-02
-2.807719036491462816e-03
2.173164188054421686e-02
-1.184750198378714536e-03
3.461625726377470791e-02
1.481010685537853533e-02
-8.646707834762956679e-04
3.651983523072033222e-02
-1.203440460766769249e-02
1.281602991847252682e-02
5.546137900386494124e-03
-1.892402730161402147e-02
1.663862273345428910e-02
1.692391305587825912e-02
2.954247334871862307e-02
2.602886095959222601e-02
2.098295975136732494e-02
-2.009484314525522564e-03
