4.357907373818648011e-02
3.983563434410863913e-03
1.018846724767108469e-02
1.415575383801828124e-01
-7.832522083734350105e-02
-2.770309253280411887e-02
3.644130395012135093e-02
-1.222021970652420464e-02
-2.885848414909464310e-02
-2.751607390630494976e-02
4.216350914867206257e-02
-2.496880833994907789e-03
3.104175128962216590e-02
1.546042953700244027e-02
-1.253802764537681469e-02
1.961348696830889082e-02
-5.194200498989420822e-02
3.926429702635125807e-02
4.289539639693362716e-02
-3.818682687378149865e-02
5.396657874955579359e-03
1.518579798487351695e-03
9.695375953067575381e-03
-8.893134591687612556e-03
-3.301426239869598156e-02
3.520805879816135686e-02
3.112221773742171460e-02
7.360521262301356060e-03
-2.841018012653240277e-03
-2.937146176536042930e-02
-1.906375047304753600e-02
2.125734998110573315e-02
1.939933467648646825e-03
-1.171458083129017780e-02
4.357268513802736720e-02
-3.204711942147664416e-02
-5.898023711004007907e-03
3.607023977450118934e-02
9.061582420620162281e-03
7.434544853827063093e-02
5.475362575635589479e-02
1.321392240725671741e-02
3.594006453660902878e-02
2.206802203040503230e-02
-4.298070578420709609e-02
-6.759224203832836508e-02
-6.221710042898642712e-02
-2.221206491361904511e-02
6.201695481701019474e-03
-5.146438757515214846e-02
9.227963023443308543e-03
1.454978167496676633e-01
-2.117752848016324352e-02
2.723414245925503963e-02
7.458034996673745809e-03
-1.373989838188904855e-02
-1.158307514016954087e-02
-6.421214998365343263e-03
4.764220106485694828e-03
1.874865213161758248e-02
2.391239007490231216e-02
2.689901137451577995e-02
-3.675838680793885871e-02
6.119871552018985028e-03
-2.428912558972484703e-03
2.935623231749140416e-02
-1.471958601640732667e-02
1.578699781982439987e-02
-2.092836165353517686e-02
5.634405766564576368e-02
5.925352942588979488e-02
8.819315760203005894e-03
6.385484201902524859e-02
-4.996004512652874041e-02
4.545860028102310935e-03
5.342141492269081304e-02
-1.749413476553129954e-02
1.883131700496587513e-02
2.713941264665620245e-02
-1.984489121279831014e-02
-1.576839609977032097e-02
-2.006344561473749621e-03
-1.120854024832418361e-03
-6.202509184435855971e-02
1.597954473298912603e-03
2.919255953069033183e-02
4.108668566091200347e-02
5.006534306419929692e-02
6.299362044144274364e-04
-5.727024701112171101e-02
5.776298968399506961e-02
7.787160155324124311e-02
3.856891907284776266e-02
-6.838375352530956519e-03
7.376194688968773505e-03
2.592523957879944163e-02
1.419055873408181512e-02
-7.345713274641285651e-03
1.543837131579817168e-02
4.826854262715585264e-02
1.247228168715430741e-02
-3.568685555229489381e-03
1.889862105673323356e-02
3.454560006003593031e-02
1.559631894922119955e-02
-2.433805517606568714e-02
-1.515719670095450056e-03
3.006774570779935374e-02
2.747824613052063381e-03
4.804173702363456755e-02
2.119184944364871370e-02
-7.035564216862244535e-03
-7.675352667154911046e-03
-1.748868347905174758e-02
2.954147511538485205e-02
1.595576560058953319e-02
-6.033658358832294510e-03
2.450268038550484917e-02
1.308442986669433594e-05
2.023410604734632301e-02
4.387946366656958475e-02
4.360008830677353231e-02
-4.084531866032747871e-03
