4.228634934353436847e-02
-3.923733331563844517e-03
1.244204122791359168e-02
1.575099971622531125e-01
-5.727103865647498182e-02
-1.909077027763639300e-02
2.965616978157403771e-02
-6.798638799740075456e-03
-2.462826451856070520e-02
-9.837756418322296526e-03
4.195705681702577294e-02
-5.733300433273136321e-03
3.753615087694783803e-02
1.002776260370552563e-02
-1.951267635371234377e-02
1.633631832860071853e-02
-6.156485867033234527e-02
3.649002989833682875e-02
3.993191953123709226e-02
-2.715636597729265134e-02
3.734909279911047264e-03
3.665464161528575460e-05
-5.712353304617501237e-03
-1.232369072664263321e-02
-2.814906946892570261e-02
4.057929216513289639e-02
3.987860165548474944e-02
9.928315583833224878e-03
9.239350420772729500e-03
-3.593605755335094187e-02
-3.859497311138126996e-02
1.992039621338026478e-02
-6.844087325325487470e-03
-5.003616055598847367e-03
4.365361349158725091e-02
-4.117111272445139747e-02
4.964227648215135957e-03
2.423527892841725873e-02
9.351335256089221559e-03
7.672219376373057287e-02
4.451659992055168047e-02
1.588022761008467398e-02
3.679880005614943883e-02
2.088397300864386352e-02
-3.895542445961908129e-02
-7.259828581794280922e-02
-5.438512011610363572e-02
-3.078311055001137220e-02
-7.082254566478596303e-03
-4.983501320618577424e-02
1.043243264589355235e-02
1.352280117552873140e-01
-2.701671956119056084e-02
-1.419014565462939359e-02
-2.108736097308216983e-03
-8.578545987631969183e-03
1.590602287417475225e-02
-7.122700436736906227e-04
1.906460429840084458e-02
3.111581215237979592e-02
3.200986765097280085e-02
3.711038175691960816e-02
-1.987132300474003799e-02
-1.599572062633392022e-03
-8.929385551104118690e-03
3.016912396534010554e-02
-1.028462461504808800e-02
1.955602509458564953e-02
-2.478587686347033525e-02
5.352633302921461222e-02
4.388046949807034025e-02
8.974739515076546326e-03
7.883138248438070761e-02
-5.705744474370044728e-02
1.217402332105876894e-03
4.965922312260939719e-02
-3.243307176130416636e-02
6.734994090777490783e-03
3.847617392785362966e-02
1.163777621242637061e-02
-2.332532775626505739e-02
-5.260371205470626421e-03
7.124978127865944089e-04
-5.880757108059508909e-02
1.200637645249003072e-02
1.910122834738370301e-02
4.777350831773041762e-02
4.722806094462939086e-02
-1.042725717500569971e-02
-5.648111886448425878e-02
6.357766247572205209e-02
9.974488476715537288e-02
3.077756091782557490e-02
-1.697409201644051180e-02
1.276089118755319163e-02
3.206138233649280522e-02
7.762053288483450331e-03
-9.278064913897487997e-03
7.261631135973445339e-03
5.046088228209733018e-02
1.535749826850363320e-02
-9.796989865439975631e-03
2.105552944453270570e-02
3.153007517207528920e-02
7.257096776569049723e-03
-2.206005474885941453e-02
1.382572523531955255e-02
3.489528226392568655e-02
3.203531454813890456e-03
3.437029524945622860e-02
2.439380475161190276e-02
-1.914579096102109190e-02
1.119743059157407572e-03
-8.651152349583135504e-03
-1.276424817142185475e-03
7.250582980480757556e-03
-2.236816097749416699e-02
1.676577689254221681e-02
-4.921485069020903325e-03
3.441932237811951012e-02
3.552525361195080222e-02
2.522518808399221157e-02
1.799763808565835177e-03
