1.495604900097532663e+00
-1.434661802002494824e-01
-1.400313014080367680e-01
1.886211699819213550e-01
-3.550913646967046589e-02
-3.626187166635475023e-02
2.284239882707694846e-02
2.085198244255366262e-01
-2.139995323855430343e-01
-2.675003677814373759e-01
3.199936071146680661e-02
1.444372579726405093e-03
3.883121205013573274e-02
-2.068464057714436422e-01
-1.611065267595108708e-01
6.180990443357359254e-02
-2.001827140484877532e-01
9.770177160996240673e-02
1.956946995156272351e-02
-9.419994879354476325e-02
2.960837659475146211e-01
-2.455934128451531251e-02
-2.301120784503041250e-01
-1.756759306910637974e-02
-3.062724449537057581e-02
2.622553525722270962e-02
2.716385718571601160e-02
3.502803899498285745e-02
-2.375496374975227809e-02
-1.688742855618272642e-01
-8.580807317807170875e-02
1.111675044344906382e-02
4.782525726513142672e-02
7.382649716873856960e-04
1.934307411941311727e-01
-7.407595032401559365e-02
-2.285945434078762162e-02
9.225460439049015804e-02
9.899300572756075667e-02
4.179723343308978656e-01
2.944464808366120678e-01
9.093293167006777367e-02
-4.825843083031031711e-01
-7.792023492390853789e-02
1.600680890713306326e-01
-4.070548792504808944e-01
-6.705270589661438407e-02
2.436718212469557443e-02
9.894016491990953455e-02
-2.136378373845388978e-01
-4.958955243057516782e-02
1.411463277944733363e-01
-2.444776690591083934e-01
7.275996407757645557e-02
1.556504854026075080e-02
-7.315515544592088304e-02
5.981969540327369828e-04
-1.056597630492319695e-01
-2.078101360707194090e-01
5.057208179979397755e-01
-1.633223492385766917e-01
-5.237254731210327918e-02
-2.105689440247573430e-01
-5.342410549664577957e-02
-1.080816170379534924e-01
7.171523485479838200e-01
-1.942447951583972099e-01
-2.341292831632131310e-01
-5.316942721924533544e-01
2.750682559031361052e-01
1.034044039337516097e-01
2.473806218070073726e-02
2.060400386699825503e-01
-3.190628131862638384e-02
4.139445735709159635e-01
5.778206612809810849e-02
-9.545009264679293892e-02
-3.110961418970603631e-02
1.017677729915078544e-02
-2.730107867114739406e-02
-3.531831889425802729e-01
2.806695569423709458e-01
1.735215373855680809e-03
-2.100844356245943345e-01
3.791179520931109437e-04
-8.365576807176466900e-02
3.679467765045956185e-01
4.332164142948613517e-02
-3.910526439079475836e-02
-8.381666685694710850e-02
1.493310243999985687e-01
2.138185477944603008e-01
1.071836970357367136e-01
-3.296316973134594264e-03
-5.637943472123652100e-03
6.206182129432136207e-03
4.718070322912382153e-03
-1.084940881274633284e+00
-1.866931527690030634e+01
-7.475161978300093324e-01
5.570155399705072341e-01
-1.361522394315386464e-01
2.982841549032855255e-02
4.767974824324028305e-02
1.838481981190852821e+01
-1.212254390594580400e-04
-1.097792707422797776e-01
1.229965943629167668e-01
2.281784804259672228e-01
6.302140630052122106e-02
-2.783660874767974747e-01
-2.158370313632644866e-01
-7.121975444812278511e-02
-2.687141487439248522e-02
5.572444985430990982e-02
-6.195124083546943439e-03
-4.124097314478625265e-02
1.993048561729438006e-02
6.911192489110362658e-01
-1.198541293930759366e-01
2.862679616515606540e-02
2.793186308286976782e-02
-2.531149443652225273e-01
