1.084976897068372637e+00
3.907088135008507379e-01
-3.772375222587243115e-02
1.947899621884161547e-01
-4.932588781058200311e-02
-4.225033876518580200e-02
7.560680404174036084e-02
9.845120390210126970e-02
-3.093121363420863190e-01
-7.744218997301288709e-02
1.091777082047258318e-01
-3.068059351926990530e-01
4.538031922737317814e-02
-2.452788804500301012e-01
-2.292397204400344890e-01
4.916046746830460279e-02
-1.745824475391515307e-01
3.973378344198863488e-02
1.988485506760184762e-02
-1.184403130182261066e-01
2.917463255286349977e-01
1.477041850637874632e-01
-4.214748427096139949e-01
-4.624605039396101347e-02
-3.149627604454252605e-02
2.685603278774539859e-02
5.924004559387086033e-02
4.024511429226862447e-02
8.925258529757229553e-02
-2.220209036826972238e-01
-1.339579085395317115e-01
6.405731068701925324e-02
5.092393714619447564e-02
1.834847865142563705e-02
2.804159667119705546e-01
-7.472457164152501718e-02
-2.805247489663642568e-02
1.014898571198727950e-01
1.843121295048035790e-01
4.938109206593708222e-01
2.492826131025225322e-01
1.148248806371157116e-01
-5.703457127547153505e-01
-2.113247311820032337e-02
4.751744743522579029e-02
-4.087802837367817688e-01
-2.131474223482143771e-02
-1.894083363894338845e-02
3.240447291805992336e-02
-1.563569422195882908e-01
-1.250076403930506785e-01
9.568350812051562571e-02
-1.314573561524881029e-01
5.589450536866991115e-03
4.208678027989520842e-02
-9.985496057554144045e-02
8.205613537970890548e-02
-5.035125418106645157e-02
-1.621860135056891750e-01
5.668679856148628460e-01
-3.523360808442390635e-01
-8.319338039831336573e-02
-1.796565161709082759e-01
-2.696042700633825007e-01
6.457220601305380114e-02
9.672315568029716815e-01
-4.081120192601019880e-01
-2.510409012771788184e-01
-2.445772131031844765e-01
1.553210065413281882e-01
9.581504954701358656e-02
2.720346797306305575e-02
1.090871555411325744e-01
-5.170716742682746059e-02
6.637162662946138880e-02
6.960734655069700239e-02
-7.415989131038713822e-02
-7.637835988603569604e-03
8.569368269021993001e-03
8.146826833673515011e-03
-3.243524022946076002e-02
-2.061151570997168392e-01
1.747914470381601859e-01
-2.082585548219064719e-01
-9.515987508001444439e-02
1.671861854009648596e-02
3.316085323505149063e-01
4.113796223546728470e-02
-6.017126908785996875e-02
-7.643315095913294499e-02
5.966625056339580624e-02
1.517410332017163910e-01
1.192768007423978815e-01
-6.111130828699629092e-03
-3.585746975414849658e-02
-1.645781854220729201e-02
4.499769144982934677e-02
-4.774605982365756063e-01
-2.336701623233966529e+01
-2.679796269985672552e-01
4.294318003626358404e-01
-3.014438741773801667e-01
1.549367927895559660e-01
9.733425278550100757e-02
2.331643519958015531e+01
-4.333381203043984442e-02
-1.717377522122944811e-01
-3.365038242077034170e-02
-1.006765666564888306e-01
8.402544356727048580e-02
-2.706826470159739984e-02
-5.995702621878535865e-01
-1.695136607258973527e-02
3.715234270799783189e-03
-1.435722105367176482e-02
-1.285907246568740447e-03
-3.514471097581939318e-02
5.555825451040163898e-03
7.017059142331163457e-01
-3.231837751030752770e-02
3.939613014958354142e-02
2.521573112721142707e-02
-3.353869083298945952e-01
