7.707674416669760831e-01
3.021627211495570009e-01
-9.609126513196031283e-02
2.065416362007113094e-01
-1.897999943020778346e-02
-8.827985331919308010e-03
5.734725058087519756e-02
1.155885995902394825e-01
-3.005800221616112822e-01
-4.480889492826278797e-02
4.264326532762652278e-03
-3.492300466366486944e-01
4.844707236453693611e-02
-1.136738825675820408e-01
-1.918638678399702258e-01
4.628502399240375098e-02
-1.537626603877697562e-01
1.623385250198623453e-01
2.194733000916926358e-02
-8.765343571874950612e-02
2.752931028858824902e-01
2.734383185976412278e-01
-4.792289833173413172e-01
-5.805944096098158980e-02
-3.836134382310163460e-02
1.576054290174422334e-02
3.622224779170934994e-02
2.865797276872861232e-02
-2.527862409601766558e-02
-1.736990745610071940e-01
-1.059769601922653237e-01
9.523375701182601460e-02
4.080749400509375846e-02
1.099454889981643646e-03
2.384561538432166117e-01
-7.931023744242793327e-02
-5.018771054456294678e-02
7.820898622397010058e-02
1.323502809153680460e-01
3.164742888200180460e-01
1.931637681893505487e-01
-6.652988161022221902e-02
-2.317873431447878829e-01
-2.820959569976366765e-02
5.614603900006898130e-02
-2.814825923914270334e-01
-4.574946199907969913e-02
-3.449210577103656306e-02
7.454046470371622490e-02
-1.811093322537971062e-01
-1.253482806077954592e-02
1.481797163287410513e-01
-2.257025516916257857e-01
8.580615638474675677e-02
-5.860645245853390861e-02
-3.628926305877566705e-02
3.168407268299233692e-02
-1.317177631483303912e-01
6.173454132562028462e-02
2.085401716228147961e-01
-1.040425476685129524e-01
-2.275522382143435607e-02
-2.276983870062849746e-01
1.138463412726196111e-01
-2.914533612502054893e-01
5.751925285127299503e-01
-6.067426886920657125e-02
-2.226540673082411104e-01
-6.095322255559949554e-01
2.952639223199184926e-01
9.352394486401749418e-02
2.210597324124918828e-02
1.368229924655679497e-01
-4.660964573792369947e-02
4.628793297351876390e-01
5.587515522759645137e-02
-7.270895397301302410e-02
-2.505104329156893073e-02
2.749198110430484121e-02
9.347640057935535651e-03
-3.455323812386268401e-02
3.115708882035050920e-03
-3.388539502844878371e-02
-2.380286151546755491e-01
-8.608012564326372740e-02
-2.883887156292530562e-02
4.105718622200811296e-01
4.057228383705080432e-02
-6.449400322265708141e-02
-8.561143953573946419e-02
9.454305011951191773e-02
1.252530162625760113e-01
1.253138859703142316e-01
9.715828737597576037e-04
-3.809981955433272560e-02
-1.557960073191111405e-02
3.127828847449620753e-02
-4.803632063376426231e-01
-2.153737474512308836e+01
-3.071628293655521702e-01
5.604320362735961680e-01
-1.979108617048268570e-01
-6.802364543818839593e-02
1.955706583602818682e-01
2.116863946057856083e+01
-8.144860319622182487e-02
1.698798498023279535e-02
-1.276143767382222904e-01
-4.063015703678729551e-03
1.580830863827031862e-02
1.027163021083197236e-01
-3.808419671981368992e-01
7.138204007276272023e-03
1.765258995413887533e-02
4.507880637831362947e-02
-3.065939029639253022e-03
-4.714398136420072660e-02
1.230740508368910469e-01
6.701058647306581406e-01
-7.363936479808330660e-02
2.812105334935210976e-02
5.989493490062969272e-02
-1.520275388500067493e-01
