1.875929433736018836e+00
8.022838611213956028e-02
-3.216286388214939507e-02
1.426476838023518212e-01
-1.264169998939905781e-01
-8.973388086724298773e-02
5.088389522279612720e-02
1.236768600447248900e-01
-2.401791022275574505e-01
-1.125083424922195263e-01
1.224605631068698131e-02
-3.507406664721202105e-01
4.856358436745722429e-02
-3.315178554785234155e-01
-2.223557429019820120e-01
5.432697616264192675e-02
-1.694245247472281335e-01
1.269882797678292263e-01
1.751975084275159134e-02
-1.040139741708117072e-01
4.092621849304123316e-01
1.949521037386148237e-01
-4.160736802732571959e-01
-2.451999273830551829e-02
-2.983907404154706455e-02
1.847272878512740135e-02
4.139223681848136493e-02
3.956091291945540434e-02
2.549919595694518648e-01
-1.989199043910048204e-01
-1.650722834365296876e-01
1.058115951673244126e-01
5.027507501290529035e-02
2.733345871297387930e-02
2.659370303917967249e-01
-5.774401079429480887e-02
-2.621255117901455378e-02
8.615985273081605555e-02
1.552150420848192880e-01
8.871658692733035423e-01
2.025837868086455273e-01
6.009152928645562497e-01
-1.418317550702340668e+00
-5.365519536826468538e-02
8.459152028808603063e-02
-4.251525097242847551e-01
-2.174549249411938945e-02
5.640433998451044317e-03
6.916057806301978417e-02
-1.879909946765110362e-01
-2.661081247642869130e-01
1.217151994210325938e-01
-1.355186491491622292e-01
1.656739323789224727e-02
2.999403591866212082e-02
-7.960840966779869632e-02
5.395436597291336511e-02
-6.226914701778696326e-02
-1.571950877296330873e-01
2.874709363086367375e-01
-1.845056413003476337e-02
-5.494153915788047016e-02
-1.947798539599716605e-01
-1.579529148248184356e-01
3.086489630914002191e-02
6.806090389800374396e-01
-2.162901083866017871e-01
-2.644692396720529359e-01
-5.531760186604515184e-01
1.591381976904813200e-01
8.089937684508186067e-02
3.917333798324307281e-02
1.537345476954214973e-01
-4.474230676350998692e-02
3.992262768624641467e-01
6.155261301682912745e-02
-8.934430756153233233e-02
-7.095806507095403504e-03
2.359134567086584866e-03
-9.922725523210829124e-03
-3.672125261873588897e-01
4.834068622250242697e-01
-1.813938443883671425e-01
-1.883760669634284568e-01
-1.826180513262443128e-02
-6.336108981849974953e-02
3.260562788291281322e-01
5.470429818569755298e-02
-4.391214851241898032e-02
-6.956203337654187635e-02
1.530195401064702310e-01
1.309459630747369374e-01
1.349237321483087726e-01
1.385149509906113963e-02
-5.656505696970270947e-02
4.964467698914631910e-02
1.104946344275958836e-02
-1.245735496864654124e+00
2.975846979141235352e+03
-1.136106101330369711e+00
3.584178831224562600e-01
-4.605655452760402113e-01
3.892893016018206254e-02
3.146062550222268328e-01
-2.975941430091857910e+03
-1.256023613059369382e-01
2.142253586498554796e-02
-1.849112896888982505e-02
-1.749286512495018542e-02
8.820776086486148415e-02
4.346879973309114575e-02
7.841782260220497847e-02
-4.315627011237666011e-03
-3.077685357857262716e-02
1.910728139773709700e-02
-6.108062036219052970e-03
-5.302158804573764428e-02
1.216591827978845686e-01
7.107841089891735464e-01
-1.156231856507474731e-01
2.360942000996146817e-02
-5.411453970009461045e-02
-2.926515322105842642e-01
