4.225583873508043098e-02
2.773486792085999575e-03
5.458546353287019315e-03
1.514511342884243827e-01
-4.986376521061419709e-02
-1.401344423421502228e-02
1.982793297484963801e-02
-8.812467959771197457e-04
-3.440603654962615110e-02
-2.157689621084868392e-02
5.064770160720843961e-02
-2.562221811820641904e-03
4.218480346851705143e-02
1.580668466073564815e-02
-3.354493767181665476e-03
1.795000047379335939e-02
-5.857531981764374507e-02
4.201499068328562458e-02
3.521270237813922677e-02
-4.053962357754148371e-02
3.983316011320514605e-03
-6.587163499625070529e-03
-1.151066966171221395e-02
-1.339943018787348450e-02
-1.542472788956372742e-02
2.673863058162728734e-02
2.721484317307093503e-02
1.639327834863379962e-02
5.102673616377229049e-03
-2.199492768146438237e-02
-2.881075834442237138e-02
2.553984545977394660e-02
-1.435343214434725567e-03
-6.549353033662441703e-03
3.787537787851924520e-02
-3.639390989537139021e-02
-4.101892858771272188e-03
2.009523343947794416e-02
1.206010036160698462e-02
8.096051767700718216e-02
4.524326565221326035e-02
6.851476216661822605e-03
3.433588316733704460e-02
1.937045885217614227e-02
-5.473966937812591027e-02
-8.570140508285284398e-02
-6.330251561004285321e-02
-2.924433394480097093e-02
1.580207714439341160e-03
-4.878638125682766002e-02
1.098458245358080454e-02
1.436342770469134500e-01
-9.511487384049333027e-03
9.580409044831483811e-04
-2.917788611843441515e-03
-4.409316524099260448e-03
8.146728735392905207e-03
1.470250382816562507e-03
1.715263450317694449e-02
2.230996463687118236e-02
1.640292900964279710e-02
3.189286594891704851e-02
-2.147601640062890560e-02
-3.071894083826798294e-03
-1.180593187726231008e-02
3.275974958587646313e-02
-1.658657575110655813e-02
2.129104720399244144e-02
-2.311555401577791713e-02
5.063240370938260071e-02
5.284491977585759059e-02
1.438845660405219107e-02
6.511893209221808476e-02
-4.648697610574092920e-02
6.016311670590468452e-03
6.481082809092586494e-02
-3.746668003607567243e-02
1.849730544055416814e-02
3.329929611369131237e-02
1.245587187688884656e-02
-1.977877998044164087e-03
1.241829893124357653e-02
7.076726165137436908e-03
-6.375912809041484053e-02
3.941026266106817388e-03
2.072231672317492723e-02
4.237602887955382869e-02
4.447605605357018987e-02
-1.411425076697714331e-02
-3.943089529715271269e-02
4.552532912842099933e-02
9.788433495512205429e-02
2.141660893649000030e-02
-5.749707449536956005e-03
1.015863000045946762e-02
3.155820160208522296e-02
2.677350858903082553e-03
-1.477278455524722034e-02
-9.607390764534429195e-04
5.772152998139468139e-02
8.826433622827423164e-03
-9.434576409853123735e-03
3.282977204721593267e-02
5.611647491284044165e-02
-7.978025094876883827e-04
-4.002857442338125793e-02
8.364794355669502579e-03
1.225916305265251083e-03
9.133626117298065950e-03
5.220465413362207485e-02
1.011726201984686213e-02
-1.711316869899714987e-02
1.537283467953365346e-02
-5.760215934067502985e-04
1.412990911029132768e-02
7.526787605756091182e-04
-1.977681247297402578e-02
2.859281271885194542e-02
4.891093012799885287e-04
2.224390323765490507e-02
2.527379934038243015e-02
2.840623332290892478e-02
1.309297743494219901e-02
