1.379521802591625601e+00
2.039586694154422730e-01
-2.080338932864833623e-02
1.274155372520908713e-01
-8.901611705005052499e-02
-3.023113763663332065e-02
5.983685099454305600e-02
3.198270408756798133e-02
-2.053509474717429839e-01
-8.306483306841982994e-02
1.262787709410986281e-01
-3.054918838606681675e-01
4.877222591130703222e-02
-3.608019543680711649e-01
-1.333404698971207836e-01
3.366941747481178027e-02
-1.951518267333085532e-01
8.469543804039858514e-02
-2.560462289693532512e-03
-1.037526478685322218e-01
4.030859294553010841e-01
5.730301690346095711e-02
-3.158418157472624443e-01
-4.612138444741731291e-02
-2.891321183346917678e-02
3.371059270477871905e-02
3.774768811740614183e-02
2.904196133931691293e-02
7.757435113308019936e-02
-2.410051341030339245e-01
-6.551940038116299547e-02
2.334422138119407464e-02
1.465067291674131411e-01
3.482363214334327495e-02
2.517457128124078736e-01
-5.188902118061378133e-02
-5.143991045588336419e-02
5.996921037331048865e-02
6.208541265414169175e-02
2.646897405975323636e-01
2.502021388854700490e-01
-1.899604664504295215e-02
-1.985731171698716935e-01
-2.961882906947721494e-01
-1.597572687023784965e-02
-3.389376055420143530e-01
-4.045774052156048128e-02
4.086228839514660649e-02
1.670155695001085405e-02
-1.558059746303115389e-01
-1.990753512800438330e-01
9.601079199092055205e-02
-2.430210350794368424e-01
6.062428457380519831e-02
-4.453784186080156360e-02
-1.712956175288127270e-02
2.512674914464696485e-02
-1.251148554329120088e-01
-5.953189227875554934e-02
3.990678690897766501e-01
-2.754326554277213290e-01
-2.331579385645454749e-02
-1.939341005067944934e-01
2.164782256531907478e-01
-3.473405567019653972e-01
8.652630741198663600e-01
-9.834089037758531049e-02
-2.359817642059169884e-01
-6.340624051517806947e-01
1.451168210551259108e-01
9.606171111590811051e-02
3.559405322994280141e-02
1.482358983485028148e-01
-4.971228575959685259e-02
5.071235891591641121e-01
5.927783708102651872e-02
-6.256569228912667313e-02
-5.961066848612972535e-03
4.106328581883644802e-02
-2.155421648058108985e-02
-5.896466835706632992e-01
5.957378442435583565e-01
-1.064897256314907281e-01
-2.310162854744248762e-01
-8.763809872289129999e-02
2.766100332621590496e-03
3.541445963564910926e-01
4.342689732311555417e-02
-4.380052622946095653e-02
-8.373814549349845038e-02
1.665848120637747343e-01
1.532780233533230785e-01
2.229566116438945755e-01
2.234816311727172433e-02
-5.929080533132946584e-02
4.634507545961241703e-02
2.381334973453874682e-02
-9.419577839435078204e-01
3.278799193382263184e+03
-7.555588942486792803e-01
5.735133039997890592e-01
-4.842480211482325103e-01
1.104129175291745923e-01
1.987100495753111318e-01
-3.279261354446411133e+03
-9.725257056197733618e-02
-1.521287020295858383e-03
1.179351389873772860e-01
1.585000698432850186e-01
2.407808096086228034e-02
-1.253178787956130691e-01
1.867663140874356031e-01
6.794793018343625590e-03
-1.483952335547655821e-02
3.852986127094482072e-02
4.919514578887174139e-03
-4.074512442571176507e-02
8.639793056499911472e-02
6.779901501431595534e-01
-7.608099996650707908e-02
1.306663879404368345e-02
-9.822243062080815434e-02
-1.739221808966249228e-01
