1.327772750053554773e+00
6.332714208110701293e-02
1.362442191657464718e-02
1.384975569326343248e-01
-1.058502378200500971e-01
-4.163550354815015453e-02
-1.765020902894320898e-02
1.240801958279860173e-01
-2.111652104158565635e-01
-2.467811817205074476e-01
-3.283483965788036585e-04
-1.041246711974963546e-01
3.543450355027744081e-02
-1.588410304830176756e-01
-1.311876914255662996e-01
4.918147458920429926e-02
-1.692170008273023996e-01
9.671231061747675994e-02
-7.604104617257689824e-03
-1.055419328044990834e-01
2.361999493550683837e-01
2.161444394587306306e-01
-4.378211916973668849e-01
-3.972776866953608987e-02
-3.038217849007196492e-02
2.288040326902773813e-02
3.755145390084635437e-02
2.032897291155677522e-02
1.247953870915807784e-01
-1.969588810970890336e-01
-1.622463141829939559e-01
1.073127565014146967e-01
2.529149642214179039e-04
-3.295142091246816562e-02
1.752797795197693631e-01
-9.281028808163682697e-02
2.544906470893693040e-02
7.865471751665609190e-02
1.322847861765694688e-01
5.516796181182144210e-01
2.693772714673912105e-01
2.811963276271853829e-01
-8.132645589539606590e-01
-1.816251567324798089e-01
1.161664406427007634e-01
-4.238161739122006111e-01
-6.024413308114162646e-02
1.875213686616916675e-03
4.135622376543324208e-02
-1.665616802692966303e-01
-1.967229055298957974e-01
8.133768645066652425e-02
-1.354497894935775548e-01
2.542002332381798624e-02
-2.831355044781957986e-02
-1.192503594302252168e-02
4.200949151072563836e-02
-7.668813185773615260e-02
-8.871977846683876123e-02
3.790975405111112195e-01
-2.816216002902365290e-01
-2.840603006552555598e-02
-6.233153723042050842e-02
5.364786641803220846e-02
-2.220036465587327257e-01
6.074530677251459565e-01
-7.238181887805694714e-02
-2.618399466127812047e-01
-7.203284496290507377e-01
2.220850593785144156e-01
1.094135408202419057e-01
2.121752698576528928e-02
9.281531403030385263e-02
-6.432198720767701161e-02
5.736907336607259822e-01
6.752532242535380647e-02
-1.052784485317488361e-01
-2.249150300940527814e-02
6.676634147726190349e-02
-3.876099886338124634e-02
-3.241608447206090204e-01
2.034060458827298135e-01
3.386903203681868035e-02
-2.278571336869390507e-01
5.548219350112049142e-02
-9.482749447670357767e-02
3.388668596780917142e-01
2.940878346771569340e-02
-9.715139291984087322e-03
-8.184290208168931713e-02
4.872235954826464877e-02
1.657334965442487373e-01
1.713676123035838827e-01
1.503511922510369914e-02
-1.860559641863801517e-02
6.852850157065404346e-02
-1.007383593787380960e-03
-3.336623856448568404e-01
2.616786482810974121e+03
-4.717775806202553213e-01
1.810676521708955988e-01
-3.648473396387998946e-01
3.216197254369035363e-02
1.986906548700062558e-01
-2.616669453620910645e+03
-6.083003910680417903e-02
-1.339939957688329741e-01
2.638351772111491300e-01
2.466386165688163601e-01
1.192601987158923293e-01
-3.628898696292708337e-01
-2.906457917997613549e-01
-1.879518596979323775e-02
-5.114996237898594700e-02
3.155321464873850346e-03
-2.641203253051571664e-02
-4.442099316361236561e-02
6.506105700100306422e-02
4.314060028700623661e-01
1.209690989912814985e-02
2.708344849816057831e-02
-4.752850468503311276e-02
-2.761009606620064005e-01
