9.953925223089754581e-01
5.565961175016127527e-01
1.464136072900146246e-02
1.818139603346935473e-01
3.705473423906369135e-03
-1.542403181701956782e-02
-1.565719447899027728e-02
3.606658476746815722e-02
-2.419287294069363270e-01
-5.822425530118380266e-02
9.991620026994496584e-04
-7.225400235474808142e-01
6.237537146489557927e-02
-1.484980076129431836e-01
-1.724523388456873363e-01
5.476511899405522854e-02
-2.085734074730680732e-01
1.647117526372312568e-01
-5.001098585535146412e-02
-6.766265671831206419e-02
3.000434998866694514e-01
1.347892608173424378e-01
-3.937521855732484255e-01
-3.688208703761119978e-02
-3.606685659133290756e-02
4.317360862614805228e-02
5.368471109409256314e-02
1.198961312786650524e-02
2.279892518781707622e-01
-2.050098205727408640e-01
-1.058643112937716069e-01
1.898210453873616643e-02
4.986334012869519938e-02
5.879061817904585041e-02
2.327463965375500266e-01
-7.108944426408925210e-02
-3.265474524778255727e-02
1.141451181701995665e-01
1.252272006149723893e-01
3.438306315856607398e-01
2.031437687110155821e-01
9.534283620405403781e-02
-4.126042277821397875e-01
5.225835419696522877e-02
3.190593925569373823e-02
-4.055685001731035300e-01
2.518827831227099523e-02
-4.626733643362967996e-03
4.355741783774647047e-02
-1.640188921828666935e-01
-1.071136674145236611e-01
1.848103290294602630e-01
-2.043239007034571841e-01
4.137571348064739141e-02
4.355376271496425034e-02
-1.501310809821916337e-01
1.105025045962975128e-01
-7.811185926766484044e-02
-2.560139270462968852e-01
6.528289741181652062e-01
-3.224071837903466076e-01
-1.323123780675814487e-01
-1.496146114623115864e-01
-9.808974470070097595e-02
-9.458769780758302659e-02
4.109424885335783983e-01
-4.244932383880950511e-02
-2.485534689444648393e-01
-8.899833076975482982e-01
2.614652540069073439e-01
1.024692267183127115e-01
4.990806036903450149e-02
8.529255921166623011e-02
-6.687927579696406610e-02
7.922515165446384344e-01
4.972805310171679594e-02
-9.267234610297236941e-02
-1.774614966143417405e-02
1.341865443328060792e-02
-9.888512579891539644e-03
-2.644211786973755807e-01
1.109728363771864679e-01
8.331514247765881009e-02
-2.097039163199951872e-01
1.338130449130403576e-02
-5.300455569886253215e-02
3.045125051321520004e-01
4.500698899983035517e-02
-5.203161034069125890e-02
-8.394264215758084902e-02
7.244446258118841797e-02
1.688849617175947060e-01
6.220883618880179711e-02
-3.081468868913361803e-03
-6.475915265696130518e-02
5.866179031363571994e-02
1.943236499755585101e-02
-4.377398313954472542e-02
2.176661007881164551e+03
-3.067206060513854027e-01
2.362307321163825691e-02
-4.366008697834331542e-01
9.106853685807436705e-03
2.124321240262361243e-01
-2.176508524894714355e+03
-6.349914138627354987e-02
-7.807845545903546736e-02
-3.785030201834160835e-02
-1.417641847365302965e-02
1.101240065690944903e-01
-2.872264878351415973e-02
-3.126552954781800508e-01
2.358022782937041484e-02
1.056853903719456866e-03
-4.078758600735454820e-02
-1.400044162392077851e-02
-4.500167559672263451e-02
1.357594407963915728e-01
3.734607172082178295e-01
-4.924590355585678481e-02
5.077662542680627666e-02
-3.786489588674157858e-02
-2.313195803144481033e-01
