7.361833745613921565e-02
-2.054596928294388780e-02
1.549292034275850938e-02
1.730464049727991060e-01
-2.364227733381341068e-02
-6.992180563776706492e-03
6.014041074846110391e-02
-6.551693578533246409e-03
-4.611042554344990663e-02
-3.460957317638513331e-02
6.844817333967867512e-02
-2.055473253926898280e-02
4.065666628513309178e-02
2.257475841615352863e-02
-1.565727362807933787e-02
1.721887520036435859e-02
-7.287392790418145694e-02
5.462008226090198093e-02
3.124234904625922127e-02
-5.752555206958920309e-02
1.481722003800900467e-02
-1.873172060633976344e-03
-3.062275318572105220e-02
-1.320238619823932424e-02
-2.642385320506557278e-02
3.040977462704042011e-02
2.721332606113585628e-02
2.303861870663292954e-02
2.453180648384400975e-03
-7.360677353735400885e-02
-6.715715406856093139e-02
3.257861197800382413e-02
-1.091573758589436949e-02
1.631780001254234946e-02
7.621622290516860687e-02
-3.423998921922244421e-02
-2.446997112798499074e-03
3.480225257910340986e-02
3.155609249095547852e-02
8.385418531272215148e-02
9.405812185351258847e-02
-7.887078711537043318e-03
1.832872526194151419e-02
3.617545766531371498e-02
-5.644402840602502636e-02
-9.000957094664840952e-02
-6.128357689633645577e-02
-1.893815325765046964e-03
2.646265524011282011e-02
-9.975907640632364348e-02
-3.298289319074054760e-03
1.617775721804650679e-01
-1.447800815376432126e-02
1.230552322902678242e-02
3.251996961869174640e-03
-1.969734902974451529e-02
1.294489310275537264e-03
-1.402034347053682239e-02
1.398735987655541635e-02
3.244983337938478485e-02
2.366175273115089794e-02
2.477116784644906033e-03
-7.713069949514173018e-02
-2.347603251798346946e-02
-2.667545607540589003e-02
6.100868928360014820e-02
-4.008603887370654206e-02
1.980535239876246578e-02
-2.885427521947292462e-02
9.375925168456156200e-02
8.005307789718330014e-02
1.932791127055377700e-02
7.899271567796972704e-02
-6.327085567863566240e-02
2.403316780664610519e-02
5.596160644189163147e-02
-4.348976123124526083e-02
-3.623088970408083753e-03
2.146910377520061530e-02
-2.443078220299832459e-02
-2.526872258503676250e-02
2.524923898243436327e-03
2.465335455719142033e-03
-1.139398418970971605e-01
2.926856758248774781e-03
9.622948090751037853e-03
7.473196562386341668e-02
5.687752774834642366e-02
-5.638729283015564420e-03
-6.940325510711753410e-02
1.000712326202666258e-01
1.185700617966891635e-01
4.556979734932298243e-02
-1.086007447494097278e-03
-8.146916888517097277e-03
3.129614378763001525e-02
7.701093072161935282e-03
-3.676814122735905244e-03
4.220614842653347409e-03
7.718365608668165123e-02
2.298451977260995704e-02
-1.936866415122473484e-02
1.514707613011889720e-02
5.502503071818631852e-02
4.204325716697709936e-03
-5.881708413241781841e-02
-9.767934286866619686e-03
1.646620230083639669e-02
-1.434467500410585572e-02
4.899494667340098530e-02
8.463282613597300497e-03
-3.087701515929985874e-02
-5.364662703405187472e-03
1.044024704736656872e-02
4.515246656739346776e-02
1.338082760870085153e-02
-2.864254996012061127e-02
3.862587873333112043e-02
2.030093897897522481e-02
2.280711108813449073e-02
3.570194989173414157e-02
1.693427469504360516e-02
1.520012085926225609e-03
