6.921386607231028165e-02
-2.104622929096489070e-02
1.873247612245521054e-02
1.505858490090989932e-01
-8.388641216309178361e-02
-4.952143305632006332e-02
4.424652851382804286e-02
1.510324276869212667e-02
-5.649982802217579092e-02
-1.522060573342720602e-02
6.235561759428875916e-02
-2.673510689250235828e-02
4.027016048906495449e-02
2.124125219547146060e-02
-5.174610448221450554e-02
3.010016805666326789e-02
-8.398657451275060026e-02
6.015270223291580010e-02
3.944024389640787831e-02
-6.003235463046951992e-02
2.245685557149457168e-02
-1.128024703293029063e-02
-3.365027953570276509e-02
-8.150978965039357149e-03
-2.432122312693252297e-02
2.820254362711693830e-02
3.479945392862954234e-02
3.060390500126164426e-02
2.692402260938336900e-03
-7.297047138008316836e-02
-7.759402495970912916e-02
4.444684708839297116e-02
8.719034638076994526e-03
-4.358036058078162966e-03
8.600618887940036927e-02
-3.483092918451990982e-02
-1.114117391034152860e-02
4.317288380946848747e-02
3.534615178458544449e-02
1.272318150641797985e-01
8.064799425394575394e-02
-3.033350700489023666e-02
1.500056267408567123e-02
3.011470288056727895e-02
-4.175925341779418432e-02
-9.767843628640981990e-02
-4.410328423327491976e-02
-1.086161707595678649e-02
7.845912386203135469e-03
-8.989531097649905433e-02
-4.867793106465123643e-03
1.550439348213012991e-01
-4.836160368778585905e-02
1.450697466880157549e-02
-1.251674044206563252e-02
-1.801469022687385291e-02
1.499448484536713977e-02
-1.596514974187712710e-02
-6.501342233100615431e-05
3.353991638678088805e-02
4.424874534565859108e-02
2.083596017114430765e-02
-6.109021736925868140e-02
-1.966815383051745414e-02
-2.380216867566176120e-02
6.449036931955021146e-02
-3.575698546626782104e-02
7.409457220573401059e-03
-4.117098890013437540e-02
8.075064435107748295e-02
6.732968948170636736e-02
2.004702345775211114e-02
9.200115693067534295e-02
-5.759808515473530122e-02
8.389166473605769170e-03
6.243902707217141579e-02
-4.757203944866450485e-02
6.548949139483895010e-03
2.425906653553067116e-02
-3.257113398045741182e-03
-2.622213965987674200e-02
4.119976826411075876e-03
-4.606690416014913581e-03
-1.040561245130788848e-01
2.128325885811754858e-02
2.300801820575770762e-02
6.707427998526149793e-02
6.599084874852856331e-02
-8.501068582938309248e-03
-6.685521737769750672e-02
1.109105724945473881e-01
1.084133478187471189e-01
6.194274414318101663e-02
5.408115090568266226e-04
-3.358691923512679978e-03
5.323186144650726703e-02
-2.290813186717421956e-03
5.646054979743020397e-03
1.397033648930445793e-02
5.476349158774240777e-02
2.671224202363831068e-02
-1.860058199618341845e-02
5.187156862920883071e-02
1.077668492305070558e-01
1.395930075888429656e-02
-6.620692429379282373e-02
1.598516741584177225e-02
1.638698139973326917e-02
-9.184305740879805668e-03
4.944989934372423512e-02
2.055431567636034629e-02
-1.815726383686211420e-03
3.365165507506873155e-03
-2.173119592204741934e-02
2.348717595656446555e-02
4.647322253540142611e-03
-4.097657440647473059e-02
3.406624565721205755e-02
1.714320036507821499e-02
3.119816041344769530e-02
2.992786422196358487e-02
4.523455120477670732e-02
-1.432879338093151489e-02
