9.276620339574037644e-02
5.018676112593656313e-03
2.484147697150973499e-02
2.008136101793516204e-01
1.032600459506349821e-02
-3.367643540436837668e-03
5.043401214865017579e-02
2.501988087268358640e-02
-1.102809504983106592e-01
-6.275708400492341354e-02
9.325414013958521764e-02
-2.430638279834695936e-02
3.671335876434711487e-02
1.877209209329322448e-02
-3.290103127818611028e-02
4.537966602012044603e-02
-1.155816082963738722e-01
4.619753423354922006e-02
7.887096432280671365e-02
-7.165357234446823043e-02
5.644839759489883591e-02
-2.175177238587977513e-02
-7.458246816238656152e-02
-8.263577048696735261e-03
-2.824811379312119897e-02
4.227657199608914063e-02
4.413624790691456079e-02
-8.582003981214003652e-03
1.289103108862255098e-02
-1.145653162141115899e-01
-4.869510264967269464e-02
4.231005371653040470e-02
1.236784256412448713e-02
-4.553634461634814556e-03
1.234204673079055681e-01
-4.623002701937828363e-02
1.459995371251032736e-02
5.181748794598561858e-02
3.878007448624387621e-02
1.198121142956729557e-01
1.231160272747917617e-01
-5.676061362561313217e-02
-6.473125180654903943e-03
5.409522838361624508e-02
-4.011747949163080307e-02
-1.256069694272312631e-01
-5.881010068508629729e-02
-1.577738308147758062e-02
2.022650106844814388e-02
-1.121085786143307672e-01
-2.943699977168634518e-02
1.491324360019463668e-01
-1.180241396812862220e-01
1.753954102799681891e-02
-2.633518876391605090e-02
1.181333047245658463e-02
-1.070411067271770378e-02
-4.025837175451307814e-02
-3.418278933100538097e-03
5.108330542667260943e-02
4.725535575352424189e-02
-8.754121769065648095e-03
-8.865854846895526720e-02
-3.634820783234715691e-02
-5.675267616827994743e-02
1.203750715629254842e-01
-5.533568411270550769e-02
-9.050875942282488040e-04
-5.040770589661747181e-02
1.092217118583107549e-01
8.837419120451883714e-02
6.845450422708676541e-03
1.428330917665761035e-01
-7.522782983829046088e-02
3.917421311686553054e-02
6.504026057055911636e-02
-7.454378307219577948e-02
1.682415893152544584e-03
2.068077715263250127e-02
-5.278235441328105182e-03
-6.060046340375713214e-02
1.140654559580234206e-02
1.539713161248812412e-02
-1.584769842141167118e-01
2.419428939628787134e-02
1.485076834230270038e-02
1.432974953235728321e-01
7.782577479209606963e-02
-5.658913133483611801e-02
-7.520914678616286153e-02
9.781883534923663248e-02
1.329234362339333231e-01
4.300933320539712668e-02
7.195393953846274115e-03
-8.563947176387642912e-03
3.290278004190572148e-02
-7.007620656326984943e-03
-1.309069577273014318e-02
1.147444664481511722e-02
9.913265142299110266e-02
4.485075707446384286e-02
-7.792412495090061952e-02
4.244560716830925173e-02
6.665350881506348912e-02
1.240085617010677765e-02
-4.972311923895134100e-02
-2.554818301737782349e-02
-3.297611652426368778e-03
1.776674608296779923e-02
4.176613870135970075e-02
1.531387713917808924e-03
-9.053530289623523686e-02
-3.618337229735146821e-03
-1.304597016446074065e-02
3.531053712231546626e-02
5.275192946469475785e-02
-4.671612162791682898e-02
6.225572748543672930e-02
4.373602922090213951e-03
3.172504200319892220e-02
3.156488234645227209e-02
1.969041199836407685e-02
-3.149258485560579857e-02
