5.041529827195034841e-02
-5.081136796612373274e-03
-3.823434286038818186e-03
1.649313057707582075e-01
-3.373172193116680262e-02
-4.542067899520052521e-03
4.111629716533959922e-02
1.888804399439081294e-02
-5.812383095570083924e-02
-1.289737081394282114e-02
5.123891205593622544e-02
-1.263015925760235802e-02
3.712785230743342879e-02
4.497397435050665138e-02
-4.452587114807826651e-02
2.671051599398577281e-02
-5.846178331198004230e-02
6.927440910186000167e-02
4.086662665657847526e-02
-4.871333200629557325e-02
4.451350114276220182e-02
1.035406072752209639e-03
-4.220630697959038002e-02
-3.517099430174819297e-02
-2.961685178819117858e-02
2.276464017293289288e-02
3.532615372563913808e-02
1.756015392451892865e-02
-1.437102142055013410e-02
-7.712520452270332783e-02
-4.834975524091245092e-02
4.670442055737522580e-02
-1.053124964175644607e-03
-1.607465883073544433e-02
7.521036586345886121e-02
-4.819599038266630942e-02
-2.196465813154269142e-02
3.265438233151130021e-02
1.628745541418652465e-02
1.044887997027794668e-01
4.357589191845256948e-02
-3.587018841065159336e-02
1.912678721432925499e-02
4.831991255252354733e-02
-4.857328365320867647e-02
-8.658032642437873960e-02
-6.381325128056047902e-02
-2.936366561681857945e-02
9.139380868778967937e-03
-8.225362806180935848e-02
2.250041125861912406e-03
1.705614636907282211e-01
-5.955591822443384586e-02
4.491763010218452479e-02
-3.526343818512867045e-02
-1.349898406330218847e-02
8.147341230371196730e-03
-1.830685633532791456e-02
8.930059033598780616e-03
3.380866602517507147e-02
4.025392403880623249e-02
3.960834656025191691e-02
-7.039412439810988076e-02
-5.980637451028059104e-03
-3.214818938013763727e-02
6.374876413010710507e-02
-4.968633538023681240e-03
7.210794539036058381e-03
-4.659171069242518115e-02
1.106763335103764234e-01
6.239141605207620955e-02
1.204662216963914290e-03
9.777552516159104812e-02
-5.983010276235578573e-02
-2.117522135748117762e-03
5.436005917199737691e-02
-4.324979661355143890e-02
-1.842768793117066650e-03
4.368338892821599373e-02
1.452140404730994927e-02
-1.160641457400668486e-02
-8.164139354362554002e-03
-2.200971779693894348e-02
-1.127186730369409418e-01
2.070746076706520000e-02
5.290461211732377933e-02
8.546166633124308021e-02
5.437473750660970495e-02
-2.900191102943239230e-02
-6.827871568728527407e-02
7.342791572459894667e-02
8.921592803444688968e-02
3.932576861824621517e-02
-7.420677754481630473e-03
8.259387291946751475e-04
1.773895824806714927e-02
1.369308904749466649e-02
-2.485431221342260244e-03
-5.168554547999804072e-03
5.081724102479512339e-02
9.342223334456889461e-03
-1.532665536788968552e-02
1.642817509815497345e-02
6.468082788540341355e-02
-4.739781098292539241e-03
-4.200801720865499078e-02
2.593839203841596941e-02
-6.441726463183528040e-03
1.987413392782944044e-02
2.675925681886592855e-02
1.321671654396538997e-02
-2.848615677963017845e-02
3.127964065903920954e-02
2.347644957625316664e-02
3.842252476248741999e-02
1.114578991904258132e-02
-2.992978843664562127e-02
5.103070681677568388e-02
1.790074376126860045e-02
3.583724000709764823e-02
1.841929302173239691e-02
3.808604489685230021e-02
1.077125274194301596e-02
