3.824990722150687361e-01
4.661216269111889687e-02
6.887684064815857710e-02
1.935187894598513481e-01
-3.474575960427905841e-02
-1.487648007501007896e-02
4.396039704309373519e-02
1.154800561273034987e-01
-3.913598482851696758e-01
-3.939423822955845367e-02
1.126548605118671276e-01
-5.871356944030026170e-02
4.077987897425128239e-02
-1.010836628855962260e-01
-1.496730935220469405e-01
4.506477434191058506e-02
-1.389254849682739490e-01
6.857165557207167694e-02
9.042161889638578032e-05
-8.378922464510196733e-02
2.155407263218336311e-01
-1.591661751021433702e-02
-2.392405738649330260e-01
-3.064248708284011968e-02
-3.999169775123290194e-02
2.096737350682165157e-02
3.337729013771006947e-02
2.908403041217688667e-02
1.491831964120535758e-01
-2.012334242795645878e-01
-1.573673303673364110e-01
1.398060731056727235e-01
3.247663200390604743e-03
8.439634317197075575e-03
3.063370329214905041e-01
-7.194570219520102228e-02
-2.197032187416070315e-02
8.277789244725042295e-02
1.654066467630030957e-01
2.587321094320884640e-01
2.460979228993736001e-01
-4.035427273680625149e-02
-2.003725042457062955e-01
-4.637741105753434567e-03
-8.500477065874179061e-02
-1.929060422599206959e-01
-5.139444679936389093e-02
5.482532946388118944e-04
8.128236827829304900e-02
-2.434573673707625119e-01
-1.435652566744582970e-01
1.232153260899995217e-01
-1.662870519403156777e-01
3.718422152753220189e-02
3.559482570549654668e-02
-5.587542888043728340e-02
6.958309106741111805e-03
-6.090805389324316366e-02
-8.955550299606329645e-02
2.036139017153431041e-01
4.874124846026006708e-04
-2.624482767254576743e-02
-1.169983106125394023e-01
8.768428999539423785e-02
-3.224965817817633251e-01
5.284696168468485666e-01
-1.751424114876272142e-01
-1.558227059191921171e-01
-2.464868383203793201e-01
2.050137078334124396e-01
1.522442480822761013e-01
3.489429037382407728e-02
1.233688017958201044e-01
-2.646086543616377185e-02
1.307800439287802874e-01
6.157510579755265390e-02
-5.799006310344356763e-02
-6.368135375931061049e-03
6.640435940353306421e-02
5.170536761337274356e-03
-2.040464130258214936e-01
9.867257694671138779e-02
4.706554326534728716e-02
-1.877125097051433045e-01
3.478713034263591908e-02
-6.547306647112094424e-02
2.588639873137452696e-01
5.001280763437421228e-02
-4.015473565725935501e-02
-8.090996799906058357e-02
1.311998342326772260e-01
1.242139765353655889e-01
7.135083484946136423e-02
-3.033125300100181221e-02
-1.789096822636082607e-02
9.944110252746440892e-03
2.986029901418696397e-02
1.556333257591404617e-01
2.446245656312839856e-02
7.130096797686746868e-02
2.042057571800341975e-01
-2.441457331918250873e-01
6.261494815297652394e-02
1.730785141271873329e-01
4.160371212435620691e-02
-6.916501596575841404e-02
-9.277745077841359489e-02
2.753341533217934511e-02
1.060196650140881047e-01
1.034219175072159658e-01
-1.553419209879223217e-01
-2.170865273255344619e-01
-2.592497188018683119e-03
-5.975739380443378934e-02
-3.304452049409789538e-02
-2.820378361640818454e-02
-6.345868824211331471e-02
7.981449603398971249e-02
1.429510411579144602e-01
-1.110021916946379861e-02
3.689402402186781060e-02
3.705849869110977579e-02
-2.158691006920907540e-01
