9.171705447081990314e-02
-7.786193481873482369e-03
5.893448516560084727e-02
1.597492915614191489e-01
-1.727027138362657865e-02
-5.992259617935147276e-03
2.051308813179231194e-02
4.886091742058340515e-03
-7.447768966595802453e-02
-1.035891076613282280e-02
6.389960948079931313e-02
-3.445956087032797655e-02
4.217789552128214936e-02
4.938650542979061697e-02
-5.547005267769478110e-02
4.240099785071249627e-02
-1.166283923987023741e-01
1.023714330719691645e-01
-2.134389052604745984e-02
-4.354982979086585715e-02
5.434099747454368412e-02
-2.361303698090466696e-02
-9.571249906369061478e-02
-2.500677019575237026e-02
-3.052460852135219227e-02
5.128847044608564332e-02
5.290041509907594808e-02
9.236968104519904799e-03
3.454190852150906821e-02
-1.049612281869425345e-01
-7.694640205616920525e-02
3.907445748439908328e-02
3.539876021523902239e-02
3.126070191191310244e-02
1.076402481855645021e-01
-4.872301419973901204e-02
-1.678022950708957239e-02
6.985552714051479484e-02
4.111536255656744743e-02
1.265366527333240398e-01
8.582054068433464522e-02
-3.495174789764377010e-02
1.962114128478020803e-02
6.058034767776376839e-02
-6.565796764151698994e-02
-1.364720368205958323e-01
-6.854183034310068479e-03
-2.345429393685449782e-02
1.687985698257454814e-02
-1.104421916374818124e-01
1.670988302950515703e-02
2.107019243421963672e-01
-8.162138277111052886e-02
3.359667930645215961e-02
-7.165691356108894183e-03
-3.877686852085560076e-02
4.029883281394397443e-02
-2.873669704168690942e-02
-1.487798965584730126e-02
5.304594240910276426e-02
1.781118262142200592e-02
-2.616116286906589039e-02
-6.859636159583049064e-02
-5.314656213927193562e-02
-6.542737810657683895e-02
1.064905594174447856e-01
-4.691119868804349835e-02
1.087229597437833206e-02
-7.268357367006217373e-02
1.449408946403494269e-01
8.804971032321162738e-02
3.681263265826295594e-02
9.139912665292726501e-02
-7.539328058784544595e-02
2.855694381811701987e-02
5.913520637995262064e-02
-6.596753536547961261e-02
-1.460427463575442175e-03
2.019787987074561642e-02
-1.201021033356819423e-02
-5.900549524945208901e-02
-9.424275135552662164e-03
1.881532447547229481e-02
-1.567974811693471082e-01
3.154378958790360343e-02
4.269701438533957116e-02
1.169660067045619201e-01
5.490383729700099025e-02
-2.929246634837934238e-02
-7.887544655726674847e-02
8.672667643461728915e-02
1.367389113284573909e-01
4.344879073433460803e-02
2.942127470751287888e-03
-1.189039915843181916e-02
6.803660590157578625e-02
-8.120061400988198841e-03
2.527294662930223978e-02
1.037738083606498662e-02
6.930857881931729025e-02
1.527632175764281897e-02
-7.652692888517709235e-02
1.813880670289602648e-02
7.334092964182126195e-02
1.034777847637968762e-02
-5.078593176428114475e-02
-1.563772007313701806e-02
-1.826213734374304565e-02
-7.839517489230729552e-03
8.360372471960175744e-02
1.320375077393975971e-02
-4.913970267736189612e-02
2.403685089270268804e-02
9.834134216511358773e-03
-2.401708816756453757e-02
6.485343135829158001e-04
-4.083772107731054035e-02
5.621893286088219810e-02
1.317755780149099110e-02
-1.366541984149804989e-02
4.769451853681117015e-02
2.689570043129574373e-02
-4.069985384085939017e-02
