6.318366540284614530e-02
-1.305083099370596411e-02
1.972890088348222548e-02
1.394037764293019066e-01
-5.998799469880733426e-02
-2.892531289229438585e-02
4.774054149130169122e-02
-5.297831983668288558e-04
-5.098992701936921890e-02
-1.400014297861496004e-02
7.946052483595877902e-02
-1.763396745771217411e-02
3.953684599334694738e-02
7.012249543578263911e-03
-1.162106866580181475e-02
1.651328812004093649e-02
-9.162273641006279945e-02
5.842687408640934166e-02
2.231424412166127524e-02
-6.104267125483620049e-02
9.807479641848360075e-03
-1.377310082266625102e-02
-3.430427284255799236e-02
-3.398191814479267769e-02
-2.138269515142132704e-02
3.631629775043032637e-02
3.125070401451290891e-02
1.825007473410922287e-02
-1.705891536568326927e-02
-9.721515202952168977e-02
-4.784418898316378232e-02
2.850125032006634029e-02
3.555675775346411882e-02
-2.703407088382903112e-03
7.672781171013554058e-02
-2.964647482480575746e-02
-2.624984969930288514e-02
3.589139344863490066e-02
1.572476141577183739e-02
9.033427797467830089e-02
7.750545691654675551e-02
-8.406583886284124674e-03
2.778023138847984796e-02
6.548907891003707959e-03
-6.668077702349251012e-02
-9.992869786271008081e-02
-5.950423802214643842e-02
1.003558585111008483e-02
-1.666277824728479295e-02
-6.871472496224839688e-02
-1.658073782588731504e-02
1.444941995044639604e-01
-4.278881903672915321e-02
2.584989505059986925e-02
-2.882732053718406462e-02
2.797737278347867118e-03
-2.112042157435212175e-03
-1.100334816339998412e-02
4.028725391471255080e-03
2.937893342998343371e-02
1.989240600936348358e-02
2.453352617653692391e-02
-5.442278200628036799e-02
-1.593612776198227721e-02
-2.689148885133363365e-02
6.385958111523848402e-02
-1.681335354857260711e-02
2.609820742988411268e-02
-4.783899926686530080e-02
6.670491210111961777e-02
5.895511090382754560e-02
1.958755930547706470e-02
9.708816124591468366e-02
-5.890342349118249388e-02
3.377724770569301427e-03
6.735740279654611751e-02
-2.947480288536485915e-02
1.687711295457283711e-02
3.783468513635668273e-02
-1.555418888065995819e-02
-4.888890757149333410e-02
1.428532688649397642e-03
1.825803873082776363e-02
-1.192178288394272201e-01
1.003522004369017395e-02
4.610373115964705448e-02
7.328604180506559373e-02
5.283326100330221209e-02
-6.398674165350115572e-03
-7.013899480567609146e-02
1.126562504356842798e-01
1.250484183232059010e-01
6.501917878989971200e-02
-1.688399881674129688e-04
-7.905216902367229181e-03
4.415887961492526159e-02
1.247462112519581723e-02
9.150099458971716615e-03
6.315484869299226034e-03
4.964449044314278581e-02
2.641050436330871776e-02
-2.424902185798405441e-02
4.785340470253984790e-02
5.585074207370066546e-02
6.301376796213453702e-03
-2.751391686291171368e-02
4.211363218384889251e-03
2.713206552699709562e-02
9.359396843145795231e-03
1.626018088536307360e-02
2.182817210877097125e-02
2.587168682804730224e-03
1.998583036338175134e-02
2.813313978175635555e-03
1.467493064138825076e-02
9.616770596577728369e-03
-2.248417038652750222e-02
3.824938163806601565e-02
1.838504806912766298e-02
5.003467947348383404e-02
1.779880310771098095e-02
2.425780439652980291e-02
-5.547272586122531379e-03
