1.196884976262708733e-01
-2.429971405966124820e-03
5.619238886274757760e-02
1.543252491226896339e-01
-5.460252984840741064e-02
-3.133755064345589147e-02
3.587920908673591924e-02
7.892352906530675227e-03
-1.085516263030257278e-01
-6.492338790653739977e-02
6.472460877277086411e-02
-5.101136939988037966e-03
3.610466000154888278e-02
4.081898149290452693e-02
-2.565659299227718293e-02
3.707300425856097092e-02
-1.083631119557910694e-01
6.067483310645371830e-02
1.779866419270170752e-02
-6.327320432598071420e-02
2.738998815225457406e-02
-1.476394189908347698e-02
-9.292283357176245318e-02
-2.483379751933423307e-02
-2.616544745253102100e-02
3.215768229282334190e-02
3.659975328861542199e-02
1.820725626800645536e-02
-1.261065480904433045e-03
-1.084551003825708904e-01
-1.003895696799883552e-01
7.658730379737832550e-02
4.660468155277541769e-03
-3.216186692020883697e-02
9.264742666459824250e-02
-7.103582129729169026e-02
2.713294317607584105e-02
6.080581435040244287e-02
5.316236204641100471e-02
1.407584687391931766e-01
1.406876425847372047e-01
-6.062442726211259014e-02
-6.040301711074391733e-03
1.130642274506499234e-02
-4.655324399669424906e-02
-1.244663424135090679e-01
-7.101390350549152686e-02
-1.331689151423809392e-02
1.057277861864946988e-02
-1.126013984579170568e-01
-1.512035020846091982e-02
1.203804900102680708e-01
-4.173551857224966355e-02
1.350952535022287293e-02
-3.959289095627838151e-02
1.803747863971594256e-02
8.051721481209028752e-03
-1.560096977837588383e-02
-8.052626098979942526e-04
4.281293037255551326e-02
8.354821384735089396e-03
2.614515854148180551e-02
-4.282809334307113858e-02
-6.694473139103251924e-02
-6.601839343855431252e-02
1.193220977296647334e-01
-1.999816887564520584e-02
-1.460836331876436134e-03
-7.709478212221654303e-02
1.318435152911732189e-01
9.681331792990377494e-02
1.252023860849327264e-02
9.422181967085130339e-02
-7.274267739069006922e-02
1.235314296079792484e-02
7.979546061760434128e-02
-7.293565955324954331e-02
4.909837663491956050e-03
6.480024984667132060e-02
-3.066851726147201695e-02
-6.737353895168762818e-02
-2.351227446720116632e-03
2.206979364967764923e-02
-1.520855951006385709e-01
3.517053468570452424e-02
9.651692430736602546e-03
1.324052986809682864e-01
3.887860275135679444e-02
5.799262386924297630e-03
-8.370172971480593915e-02
8.715172260678905047e-02
1.389640303053687465e-01
8.707128033566746694e-02
4.525090418637578438e-03
1.880614330049823479e-02
7.164623098602618256e-02
-1.189621686786335175e-02
1.186816656212386079e-02
2.706539859102008450e-02
1.019410307441717123e-01
4.028905573200347590e-02
-4.646492701595406061e-02
4.309989632705235607e-02
8.159665634539337020e-02
2.703032417620931938e-02
-4.283565799514121863e-02
-3.277434696533276792e-02
4.087557912281702954e-02
2.295500818654661046e-02
5.623664846998899236e-02
5.272872093307512387e-03
-7.625688917899253738e-02
-4.567455430576572439e-03
-3.961800388038572152e-02
3.396012983007956620e-03
-7.576165426934622360e-03
-3.726008380951761900e-02
1.360005166926203657e-02
2.068828740510042508e-02
6.122700390697488615e-02
2.748887060693538942e-02
3.167832695192984716e-02
-2.975511215689863320e-02
