7.713981497177968549e-02
-2.432728705767250865e-02
-6.759216051939631598e-03
1.641724450629706844e-01
-6.057871060314479195e-02
-2.085818438648701090e-02
3.661324497568330116e-02
2.149602601613054276e-02
-6.103526086016941576e-02
-3.964713746253067939e-02
6.235128741203510572e-02
-2.361581289219216728e-02
3.867146835863088938e-02
1.316301412494524925e-02
-2.286842548433831723e-02
4.206795428807508230e-02
-8.524352375338040133e-02
5.603186027726181351e-02
4.015983282292623358e-02
-5.528269167385246874e-02
7.824710661219924646e-03
-1.037887281167648723e-02
-2.171041278934637830e-02
-1.304519210758048331e-02
-2.137928825345314365e-02
3.003063955398865836e-02
2.663106653327934614e-02
2.809322744842734920e-02
-2.407360550623516282e-02
-5.863358354828207553e-02
-4.973488752344845665e-02
2.028003085170571040e-02
7.252053960496773755e-03
-4.457762880194948707e-03
7.513951280047947989e-02
-4.621013733293199977e-02
-4.311768268262738957e-03
5.844218042842364014e-02
1.617667739569839114e-02
1.094699199717474869e-01
9.447616992920071510e-02
-2.653149608725158259e-02
1.871739689193319123e-02
3.863695752992413190e-02
-4.434787269710049884e-02
-8.956196694147600113e-02
-7.383429119788864625e-02
-2.258724502564035674e-03
2.183062627688503454e-02
-9.434783633417698212e-02
-1.357551138456880579e-02
1.694295729745203261e-01
-5.083984393138885061e-02
3.920134516911133460e-02
-1.537186418880320815e-02
-1.432662029496967193e-02
-1.834953387375648504e-02
-1.966303166700367200e-02
1.313278026184860892e-04
4.004335107766365809e-02
3.992115823076858305e-02
2.628428817450334520e-02
-6.602930020731090366e-02
-2.084169329381602154e-02
-2.988489203399424810e-02
6.435053037145621602e-02
-3.226840763110061516e-02
2.991853927925447465e-02
-2.654436774986379532e-02
9.210081615646004138e-02
6.916716048698745567e-02
1.004350418101429554e-02
9.992712291344840736e-02
-6.191126820807646425e-02
2.260177541626262609e-02
6.199966439558957099e-02
-5.133374101203624917e-02
7.359413907774836616e-03
2.848065096512186756e-02
-2.304453874392692336e-02
-4.097784013875660492e-02
3.565595578320923664e-04
1.649647710978996429e-02
-1.066309517882970681e-01
1.769632608463389545e-02
2.424841558602253144e-02
8.069402869907627007e-02
5.685949646421484260e-02
-8.133858636390378649e-03
-7.491923710980730178e-02
8.615935454037493280e-02
1.560222810156721707e-01
4.509695859554696540e-02
-1.304196105828436814e-02
2.431527444285208617e-02
3.404887939513301376e-02
-7.159950793331315566e-03
-1.496855976625965923e-03
1.266073217941965368e-02
7.332287680635829474e-02
2.928356556920519438e-02
-1.630160927274326710e-02
2.033752878730599178e-02
1.644877067563621509e-02
1.306225922820836161e-02
-6.163419776218148627e-03
-7.530787319470988450e-03
9.379156091016582764e-03
3.370043373693576427e-02
2.040985978783460553e-02
1.347386277953610545e-02
-4.585963414969640439e-03
-2.468658263264789099e-02
-1.935066634697957255e-02
3.287455313363096820e-02
9.804979847137573756e-03
-2.325772659072589121e-02
2.485304794224818536e-02
1.922666901179859167e-02
2.331414989336622057e-02
2.074156706494401092e-02
1.896375873917000021e-02
4.258305662514061396e-03
