6.619882609680871610e-02
3.445247984580346312e-03
4.711523403635453633e-02
1.913975507006568932e-01
-2.438891872225479318e-02
-2.527789221810294862e-03
2.234032842353173010e-02
1.609903289046599184e-02
-1.053091026923418383e-01
-2.138082914672700952e-02
8.023497152363034957e-02
-1.406570077839219834e-02
4.225665198382522192e-02
5.329182427314904658e-02
-6.296038760621769370e-02
3.203430613237134850e-02
-9.529133892191765653e-02
5.946231032155679941e-02
5.617591661728482677e-03
-9.118551219500226068e-02
6.751164237357087927e-02
-8.493140115835018378e-03
-1.052176196962122390e-01
-2.315709683332434210e-02
-4.021713326815512524e-02
2.366106035013193498e-02
2.797762082375443438e-02
3.872120138243695386e-02
3.557592446017210364e-02
-8.224347572429380193e-02
-7.312509395852506699e-02
6.775455921426098982e-02
-3.982975358211859884e-02
1.362338654410777394e-02
9.097752631499389508e-02
-5.569537662999390903e-02
2.058997116413507911e-02
3.549426930694465909e-02
4.757865603497180018e-02
1.313656598311254697e-01
1.030062574266450426e-01
-3.031060109577055073e-02
1.556926095978639069e-02
3.784483730193244355e-02
-5.756320991480023963e-02
-9.626586299891926046e-02
-6.174845223870306654e-02
-6.743134581709497866e-03
3.269101718452527283e-02
-1.164592854027475255e-01
3.493678479283612859e-02
1.564270767377986537e-01
-8.550297248767568803e-02
1.779213838679183368e-03
-3.330337105780678542e-03
-3.982667277076679113e-02
1.201114082720167175e-03
-6.687954076561197780e-03
6.056328431149893277e-03
5.586855073105212455e-02
2.006384803006966422e-02
2.584000815148712604e-02
-6.552035463240102331e-02
-4.162618273966955940e-02
-6.177155710198434235e-02
1.014137903625851322e-01
-2.298656185585201683e-02
6.709950371678985448e-03
-5.378968160290042988e-02
1.202252787380651000e-01
7.755897238346420863e-02
1.321587438961380201e-02
5.397535217255011730e-02
-5.844897014001215751e-02
2.396821922148006934e-02
5.025706234039994946e-02
-4.743655103732979939e-02
-2.348955011535291959e-02
2.542110004829112313e-02
-1.957397800999682858e-02
-6.180779358926891121e-02
3.123695074400423266e-02
1.131659368250126363e-02
-1.472964829716651991e-01
-5.580150594404642561e-03
1.937314509994259026e-02
1.257593764631756983e-01
4.655945349301759961e-02
-9.534322330724265271e-03
-8.234688622280206260e-02
5.748568885978255771e-02
1.507922165242918666e-01
5.334817270691161184e-02
-1.221141623684518507e-02
1.655475365504699425e-03
1.061963769508222910e-02
-3.662165175383425009e-03
1.390641462350572510e-02
2.513386134030781704e-02
5.041127966535441374e-02
4.603911293267515248e-02
-7.199392131452775345e-02
3.057582318895768481e-02
1.039450185242456470e-01
2.625169023931661627e-02
-3.223930178608647168e-02
2.899520765661378618e-02
1.274240379687263669e-03
1.018367639762374210e-02
2.047204212787612221e-02
3.833438311385606312e-02
-2.646053552652105623e-02
1.465408259819156456e-02
-3.343310402108912172e-02
4.048969201764274217e-02
1.046771292482473470e-02
-4.121794921934363032e-02
4.317731501873911526e-02
1.868159738045704898e-02
3.433226834649616421e-02
5.821103308843778024e-02
2.897750165242563014e-02
-1.074628398662014206e-02
