4.195961099992828736e-02
-7.105962934907505968e-03
2.115546299891324367e-02
1.434153586840087868e-01
-7.579644924595019262e-02
-2.514424297063189151e-02
2.379631916462443542e-02
-2.444354146344807077e-04
-2.782619161566479704e-02
-1.160900163607436752e-02
4.488550355891973709e-02
-8.938815704116365168e-03
3.992119222845991189e-02
1.087335817630474821e-02
-2.005306039767873472e-02
2.144396317865404633e-02
-6.520926813624150498e-02
4.128244452185825253e-02
2.576823759130242308e-02
-4.322913117502746871e-02
4.143251694448402134e-03
1.227260227367743539e-03
4.780695071353591175e-04
-2.037707869657978677e-02
-2.735795845967237128e-02
1.447088638703908359e-02
3.517309613882180219e-02
2.772593606786344367e-02
-1.498428659142958530e-03
-3.432803587636268361e-02
-1.919107796174723823e-02
3.202079044959083021e-02
3.459037200614911711e-04
-4.926129332469386668e-03
3.310510751474282642e-02
-2.481721300561723353e-02
6.485147962447257441e-04
2.263532390967704089e-02
8.998262217303931720e-03
7.636376862118687825e-02
4.552498124612736063e-02
2.482784867327403333e-02
4.733355953243556513e-02
1.417335798852370488e-02
-4.888446446795846612e-02
-7.307611824155380020e-02
-6.348182433352000942e-02
-1.350872736558450526e-02
5.189579814726341667e-03
-4.768960686758116907e-02
2.731586044376621558e-03
1.444886179067950138e-01
-2.867491666017230045e-02
4.967723143076696601e-04
-1.064537962271749905e-02
-2.975057255127921962e-04
8.546279783151256026e-03
1.658319568361577012e-02
1.190704181201684975e-02
2.186257327900609226e-02
2.237842820705360225e-02
3.803547801502293879e-02
-2.605006373642781980e-02
-6.264323074487876397e-03
-6.395364748868814786e-03
3.276264161234010430e-02
-8.361182714038406516e-03
1.580730902220484069e-02
-1.205581572736669216e-02
5.497129687173085699e-02
5.758202092946085315e-02
-3.753640720240314366e-03
7.744654223647362556e-02
-5.727356554993612292e-02
1.538634024485752150e-02
4.574425298240769600e-02
-2.813506854503078358e-02
9.985445519588687091e-03
2.130091106375386900e-02
6.984273569804272386e-03
-1.804320768727363244e-02
-4.501209780984449793e-03
7.338759279743811703e-03
-7.445718124677336291e-02
1.234429865423525285e-02
3.110435306241132736e-02
4.972782469202918776e-02
4.579910606335246825e-02
1.711213873723105294e-02
-6.021749440324208891e-02
4.861092674749678544e-02
9.718450667270372989e-02
2.854690921208469234e-02
-8.524884899060225507e-03
1.593167364326308899e-02
3.534447348836788905e-02
2.447338938990739621e-03
-2.104799065731910446e-03
2.180870697820402881e-02
4.438524239504815228e-02
2.034455257585854326e-02
-5.475138181361804968e-03
2.617327350781817330e-02
3.977290389680065985e-02
2.195958515743523520e-02
-3.338147769091914796e-02
3.355191853577466077e-03
1.576100665120705457e-02
6.492559832506739070e-03
3.881353105072671283e-02
1.635762121317796414e-02
-3.864043382163284690e-03
-2.618250962849621999e-03
-7.516285619473705992e-03
2.764813137945121291e-02
3.749077852403637223e-03
-9.737188016153197623e-03
3.694310454678806366e-02
3.860913603593640886e-03
1.202264336320979510e-02
1.435176286573547344e-02
4.137459268497267750e-02
-5.501296842786551622e-03
