1.125508117409481201e+00
3.083074809141521655e-01
4.962855950007138972e-02
2.307485937168820556e-01
-1.096473066266412388e-02
1.119091095642232858e-02
3.926335890326981826e-02
5.684118154169937043e-02
-2.846202137934241705e-01
-5.149317468156766608e-02
9.520676284245155330e-02
-2.856820988774302350e-01
5.097935531838437839e-02
-1.681833796731666553e-01
-1.744181168555201111e-01
4.441784318704833368e-02
-1.401222452462675960e-01
7.110856298481849080e-02
-3.219550420936911905e-02
-1.278330935017777392e-01
3.326310440580755312e-01
1.665991532190673752e-01
-3.896849543841369723e-01
-3.823087459900609275e-02
-4.893571869191859491e-02
1.639188980617900526e-02
3.051518857751744918e-02
4.627483227983564262e-02
1.296526389346581709e-01
-1.234760496356130943e-01
-1.107526635273927695e-01
9.373942384712563580e-02
-8.191409877301225606e-02
4.474277760462452846e-02
2.543417078156942068e-01
-7.169049213262468356e-02
1.220775514950389606e-02
5.840552729189596448e-02
1.558492814662244541e-01
5.047756755334376066e-01
2.192526855358707394e-01
3.065530562168987672e-01
-7.270333511064563936e-01
-1.268392091334362703e-01
-8.332793620469658435e-02
-1.913920872151635422e-01
-4.461367008354955033e-02
-2.924446442264638790e-03
7.776840104992999159e-02
-1.919326289232685667e-01
2.936321869219682412e-02
1.089467554809573357e-01
-2.262991738756454652e-01
4.299373301545728054e-03
4.391541719299674185e-02
-1.281315632698003526e-01
5.696443426532482590e-02
-2.331999287487462880e-02
-2.212416090708018146e-01
5.878770151874164185e-01
-3.173560209335448690e-01
-3.402238769155019327e-03
-1.240555640465572651e-01
1.104641474375398502e-01
-2.715557617665353973e-01
5.048943209490062145e-01
-2.636041013408885192e-02
-1.804312985372007461e-01
-5.401268379687280685e-01
2.122099104708183859e-01
1.080765486602786041e-01
2.816148771375903692e-02
1.269263937453501967e-02
-6.080543545448335863e-02
4.497249591199761198e-01
4.247539580885018040e-02
-7.194701826875871120e-02
-5.279570148217516135e-02
1.703252349761186224e-02
-2.918763677545754831e-02
-5.329456710779822970e-01
6.203051716554455197e-01
-1.478757533135421909e-01
-1.989160688560076551e-01
-1.830496982857994226e-01
-3.577476693124026497e-02
4.215013455366261041e-01
3.553248392964292179e-02
-2.753652159100639096e-02
-9.096764986085759119e-02
6.927538144793743413e-03
1.896105321429217838e-01
1.093766763629986372e-01
-8.386504802608385489e-03
-1.853627243693267701e-02
-4.283183396765366524e-03
4.964832378502537225e-03
-5.912602081298246048e-01
-2.649797587608918548e+01
-6.831897385218326235e-01
4.868398160506330896e-01
-5.385952640388040891e-01
-5.036130654343651258e-02
2.943916416663228119e-01
2.638033563341014087e+01
-7.064439172245329246e-02
-3.196896809015470353e-02
-1.086195558841893671e-01
-4.342440994889784633e-02
1.814381630288153247e-02
5.085736628041104268e-02
-2.971489510398441780e-01
-2.198760084866080433e-02
-4.837578782121454424e-02
5.879742092224660155e-02
-1.152809023096068586e-02
-4.779509771779189009e-02
1.048088678150520536e-01
5.832417555102438200e-01
-5.017735487177787945e-02
6.710346524566546123e-02
3.081177898853582064e-02
-2.376425342442871624e-01
