1.097135645553350969e-01
3.124189640781160904e-02
3.704779190901064112e-02
1.793616765649037603e-01
-4.386569754534352938e-02
-3.509359295079672592e-02
7.079803546599450215e-02
3.252108165116140981e-02
-1.117919088438092956e-01
-2.577997652111818638e-02
1.082350102574380912e-01
1.189832486073072459e-02
3.528472098117862998e-02
3.983893357464651785e-02
-6.283734109058869421e-02
2.986894537576079145e-02
-1.140337703409404213e-01
6.514720497083814621e-02
4.564281163724004386e-02
-7.049975368408745169e-02
2.290021101837069750e-02
-1.670930746961474256e-02
-1.023875473729347618e-01
-3.260191305755766322e-02
-2.466428142129584167e-02
3.492496541825462764e-02
5.421804251568929089e-02
3.210996239985597356e-02
-1.729778996034259109e-02
-1.205078418739589097e-01
-8.624513142399070631e-02
2.909655907303321243e-02
3.358719537504395447e-02
-8.407415590152567120e-03
1.453915031709129835e-01
-4.913560641700520648e-02
-1.716265558567364735e-02
5.854395270616663538e-02
6.662657686028694570e-02
1.550813521760181501e-01
1.142830115160755611e-01
-6.575506007662568209e-02
7.712880212324080276e-03
4.630884113714017758e-02
-6.468015575022079133e-02
-1.291863454843209524e-01
-4.360122052521120395e-02
-2.099033175138309559e-02
3.427031034444638635e-03
-1.029586514010496501e-01
-4.149499586962068776e-02
1.376534418625525724e-01
-3.287288733770488136e-02
4.901017287794573463e-03
-4.037116076783142660e-03
-1.082460157239850673e-02
1.642466010043541758e-02
-9.390532510053617443e-03
-3.362029473983341177e-03
4.989755023767372677e-02
3.409723246022622334e-03
-6.258543422973161796e-03
-8.174518102434946698e-02
-7.785094555573834896e-02
-4.291923537414987777e-02
1.556681686774723516e-01
-6.609524044501569051e-02
1.032348880867317575e-02
-7.444490262655278912e-02
9.043895606775720353e-02
6.779073238959654191e-02
1.203219599493854375e-02
9.634237014804192256e-02
-5.779661963523796686e-02
1.518437431322183784e-02
7.139355488013698903e-02
-5.044517411810112151e-02
1.118780439509947655e-02
2.415028749839542854e-02
5.842753359750263442e-03
-5.060148613072801282e-02
-1.863231635587681012e-02
2.487214696123984936e-02
-1.674491403213895779e-01
4.925406332592530134e-03
5.280857376354575194e-02
1.106965595153539539e-01
6.374033268597756319e-02
-2.951685302150774959e-02
-6.926955358229003323e-02
7.602565937353933379e-02
1.257602022978643319e-01
6.376675696704126040e-02
-5.519200824163572605e-03
6.005775425665049738e-03
9.968219684293622151e-03
1.428069670175879935e-02
-1.143477045692087302e-02
2.913190874872029212e-02
1.166213854175452980e-01
5.500003698567113020e-02
-5.419870651785085869e-02
6.417702316905504745e-02
6.571882489924441018e-02
3.018170114739504584e-02
-3.317092956221756594e-02
-4.220971430376607714e-02
2.133493500707217549e-02
-2.714829306163224487e-02
6.881819510397502171e-02
4.087114029239558022e-03
-8.903750090651740834e-02
-6.304994209743952638e-03
1.078485005439056010e-02
1.732414606390264566e-02
1.767044432095588036e-02
-2.840115727430725379e-02
1.507173362193015009e-02
1.116606220435301111e-03
2.561328616015501325e-02
2.793960505516457360e-02
1.936320443940253710e-02
-3.149627863494686153e-02
